<?xml version="1.0"?>
<opencv_storage>
<stage0>
  <maxWeakCount>5</maxWeakCount>
  <stageThreshold>-2.8585088253021240e-01</stageThreshold>
  <weakClassifiers>
    <_>
      <internalNodes>
        0 -1 14596 1.6742151638027281e-04</internalNodes>
      <leafValues>
        -3.8461539149284363e-01 7.9234975576400757e-01</leafValues></_>
    <_>
      <internalNodes>
        0 -1 22239 2.8704830911010504e-03</internalNodes>
      <leafValues>
        -2.2117048501968384e-01 8.4914577007293701e-01</leafValues></_>
    <_>
      <internalNodes>
        0 -1 137586 4.7958549112081528e-03</internalNodes>
      <leafValues>
        3.7260210514068604e-01 -9.0192770957946777e-01</leafValues></_>
    <_>
      <internalNodes>
        0 -1 245 1.9535783212631941e-03</internalNodes>
      <leafValues>
        -4.3784895539283752e-01 7.8275066614151001e-01</leafValues></_>
    <_>
      <internalNodes>
        0 -1 52474 -5.5421921424567699e-03</internalNodes>
      <leafValues>
        -5.8756971359252930e-01 5.0697344541549683e-01</leafValues></_></weakClassifiers></stage0>
</opencv_storage>
