<?xml version="1.0"?>
<opencv_storage>
<stage0>
  <maxWeakCount>6</maxWeakCount>
  <stageThreshold>-7.7661043405532837e-01</stageThreshold>
  <weakClassifiers>
    <_>
      <internalNodes>
        0 -1 13630 3.1429555267095566e-02</internalNodes>
      <leafValues>
        -6.6117644309997559e-01 4.6285715699195862e-01</leafValues></_>
    <_>
      <internalNodes>
        0 -1 1329 2.3441744269803166e-04</internalNodes>
      <leafValues>
        -4.7058507800102234e-01 3.5562133789062500e-01</leafValues></_>
    <_>
      <internalNodes>
        0 -1 114053 -4.6209350228309631e-02</internalNodes>
      <leafValues>
        8.1663972139358521e-01 -2.3386277258396149e-01</leafValues></_>
    <_>
      <internalNodes>
        0 -1 36921 -3.4591951407492161e-03</internalNodes>
      <leafValues>
        -7.1465629339218140e-01 2.5660654902458191e-01</leafValues></_>
    <_>
      <internalNodes>
        0 -1 133258 2.7969593647867441e-03</internalNodes>
      <leafValues>
        2.7994903922080994e-01 -6.4196497201919556e-01</leafValues></_>
    <_>
      <internalNodes>
        0 -1 48594 -1.9806171767413616e-03</internalNodes>
      <leafValues>
        -6.2534552812576294e-01 1.9751471281051636e-01</leafValues></_></weakClassifiers></stage0>
</opencv_storage>
