<?xml version="1.0"?>
<opencv_storage>
<stage6>
  <maxWeakCount>9</maxWeakCount>
  <stageThreshold>-1.1649379730224609e+00</stageThreshold>
  <weakClassifiers>
    <_>
      <internalNodes>
        0 -1 12183 -1.2836337089538574e-01</internalNodes>
      <leafValues>
        6.5517240762710571e-01 -4.3911439180374146e-01</leafValues></_>
    <_>
      <internalNodes>
        0 -1 5891 1.4095101505517960e-02</internalNodes>
      <leafValues>
        -2.7767834067344666e-01 5.7428669929504395e-01</leafValues></_>
    <_>
      <internalNodes>
        0 -1 157295 -9.1684225481003523e-04</internalNodes>
      <leafValues>
        -6.3879418373107910e-01 2.5280341506004333e-01</leafValues></_>
    <_>
      <internalNodes>
        0 -1 58929 -9.7631309181451797e-03</internalNodes>
      <leafValues>
        -7.1134072542190552e-01 1.8049001693725586e-01</leafValues></_>
    <_>
      <internalNodes>
        0 -1 93706 -2.7700648643076420e-03</internalNodes>
      <leafValues>
        -6.0569715499877930e-01 2.0373696088790894e-01</leafValues></_>
    <_>
      <internalNodes>
        0 -1 86328 -4.5939544215798378e-03</internalNodes>
      <leafValues>
        -7.9959553480148315e-01 1.9001327455043793e-01</leafValues></_>
    <_>
      <internalNodes>
        0 -1 39994 -1.9205780699849129e-02</internalNodes>
      <leafValues>
        -7.8771549463272095e-01 1.5278396010398865e-01</leafValues></_>
    <_>
      <internalNodes>
        0 -1 125851 4.7915424220263958e-03</internalNodes>
      <leafValues>
        1.9528876245021820e-01 -5.6861501932144165e-01</leafValues></_>
    <_>
      <internalNodes>
        0 -1 91960 -2.5150994770228863e-03</internalNodes>
      <leafValues>
        -7.9191756248474121e-01 1.3025090098381042e-01</leafValues></_></weakClassifiers></stage6>
</opencv_storage>
