<?xml version="1.0"?>
<opencv_storage>
<stage15>
  <maxWeakCount>13</maxWeakCount>
  <stageThreshold>-8.2271993160247803e-01</stageThreshold>
  <weakClassifiers>
    <_>
      <internalNodes>
        0 -1 82428 -7.1757463738322258e-03</internalNodes>
      <leafValues>
        1.9685038924217224e-01 -4.7568711638450623e-01</leafValues></_>
    <_>
      <internalNodes>
        0 -1 61909 -6.1486740596592426e-03</internalNodes>
      <leafValues>
        4.7931051254272461e-01 -1.7519353330135345e-01</leafValues></_>
    <_>
      <internalNodes>
        0 -1 143750 -2.6927404105663300e-03</internalNodes>
      <leafValues>
        5.8455020189285278e-01 -1.0873990505933762e-01</leafValues></_>
    <_>
      <internalNodes>
        0 -1 35411 9.8458549473434687e-04</internalNodes>
      <leafValues>
        -1.6198107600212097e-01 3.7162768840789795e-01</leafValues></_>
    <_>
      <internalNodes>
        0 -1 13683 3.6273688077926636e-02</internalNodes>
      <leafValues>
        1.1781332641839981e-01 -6.0616999864578247e-01</leafValues></_>
    <_>
      <internalNodes>
        0 -1 159536 -7.2424940299242735e-04</internalNodes>
      <leafValues>
        -4.6381837129592896e-01 1.9526626169681549e-01</leafValues></_>
    <_>
      <internalNodes>
        0 -1 160467 8.0153997987508774e-04</internalNodes>
      <leafValues>
        -2.6793214678764343e-01 2.8855103254318237e-01</leafValues></_>
    <_>
      <internalNodes>
        0 -1 159519 6.6521938424557447e-04</internalNodes>
      <leafValues>
        1.4319387078285217e-01 -5.1840853691101074e-01</leafValues></_>
    <_>
      <internalNodes>
        0 -1 77917 1.6975652426481247e-02</internalNodes>
      <leafValues>
        1.4712324738502502e-01 -4.4631078839302063e-01</leafValues></_>
    <_>
      <internalNodes>
        0 -1 120998 1.5248635783791542e-02</internalNodes>
      <leafValues>
        -1.5233314037322998e-01 4.9320945143699646e-01</leafValues></_>
    <_>
      <internalNodes>
        0 -1 45669 3.1977072358131409e-02</internalNodes>
      <leafValues>
        1.0763423889875412e-01 -7.0642197132110596e-01</leafValues></_>
    <_>
      <internalNodes>
        0 -1 49189 2.3793615400791168e-02</internalNodes>
      <leafValues>
        -1.1949153244495392e-01 7.0080846548080444e-01</leafValues></_>
    <_>
      <internalNodes>
        0 -1 139804 4.3790362775325775e-02</internalNodes>
      <leafValues>
        9.5107726752758026e-02 -7.9511606693267822e-01</leafValues></_></weakClassifiers></stage15>
</opencv_storage>
