<?xml version="1.0"?>
<opencv_storage>
<stage3>
  <maxWeakCount>6</maxWeakCount>
  <stageThreshold>-1.1491072177886963e+00</stageThreshold>
  <weakClassifiers>
    <_>
      <internalNodes>
        0 -1 24350 -4.8277755267918110e-03</internalNodes>
      <leafValues>
        -9.0643274784088135e-01 -1.0489510744810104e-01</leafValues></_>
    <_>
      <internalNodes>
        0 -1 132265 -3.1803436577320099e-03</internalNodes>
      <leafValues>
        -8.8107734918594360e-01 1.3125622272491455e-01</leafValues></_>
    <_>
      <internalNodes>
        0 -1 10501 -5.7458933442831039e-03</internalNodes>
      <leafValues>
        -7.7518534660339355e-01 1.9469474256038666e-01</leafValues></_>
    <_>
      <internalNodes>
        0 -1 97034 -3.7035648711025715e-03</internalNodes>
      <leafValues>
        -7.1124106645584106e-01 2.0549906790256500e-01</leafValues></_>
    <_>
      <internalNodes>
        0 -1 19900 3.6441090051084757e-03</internalNodes>
      <leafValues>
        1.6220694780349731e-01 -8.2185769081115723e-01</leafValues></_>
    <_>
      <internalNodes>
        0 -1 7994 5.6820213794708252e-03</internalNodes>
      <leafValues>
        1.4875119924545288e-01 -8.8737761974334717e-01</leafValues></_></weakClassifiers></stage3>
</opencv_storage>
