<?xml version="1.0"?>
<opencv_storage>
<stage5>
  <maxWeakCount>8</maxWeakCount>
  <stageThreshold>-2.1418227255344391e-01</stageThreshold>
  <weakClassifiers>
    <_>
      <internalNodes>
        0 -1 156349 -1.1072113411501050e-03</internalNodes>
      <leafValues>
        7.7483445405960083e-01 -1.1409395933151245e-01</leafValues></_>
    <_>
      <internalNodes>
        0 -1 161131 1.2996334116905928e-03</internalNodes>
      <leafValues>
        -2.1875898540019989e-01 6.6299539804458618e-01</leafValues></_>
    <_>
      <internalNodes>
        0 -1 58238 6.4691323786973953e-03</internalNodes>
      <leafValues>
        -3.3979061245918274e-01 6.4527094364166260e-01</leafValues></_>
    <_>
      <internalNodes>
        0 -1 160369 5.1756735047092661e-05</internalNodes>
      <leafValues>
        -3.3489385247230530e-01 6.1321896314620972e-01</leafValues></_>
    <_>
      <internalNodes>
        0 -1 148470 1.9994385074824095e-03</internalNodes>
      <leafValues>
        -3.6938175559043884e-01 5.1425784826278687e-01</leafValues></_>
    <_>
      <internalNodes>
        0 -1 11892 2.0982802379876375e-03</internalNodes>
      <leafValues>
        -2.4256795644760132e-01 8.3448719978332520e-01</leafValues></_>
    <_>
      <internalNodes>
        0 -1 159831 4.1519574820995331e-02</internalNodes>
      <leafValues>
        2.9009166359901428e-01 -8.7296032905578613e-01</leafValues></_>
    <_>
      <internalNodes>
        0 -1 142394 -1.7242708054254763e-05</internalNodes>
      <leafValues>
        5.8399856090545654e-01 -3.7605723738670349e-01</leafValues></_></weakClassifiers></stage5>
</opencv_storage>
