<?xml version="1.0"?>
<opencv_storage>
<stage1>
  <maxWeakCount>6</maxWeakCount>
  <stageThreshold>-1.3494965434074402e-01</stageThreshold>
  <weakClassifiers>
    <_>
      <internalNodes>
        0 -1 10552 -2.3572072386741638e-02</internalNodes>
      <leafValues>
        -5.7142859697341919e-01 5.4098361730575562e-01</leafValues></_>
    <_>
      <internalNodes>
        0 -1 14635 2.0296428352594376e-02</internalNodes>
      <leafValues>
        -3.8443070650100708e-01 5.7057106494903564e-01</leafValues></_>
    <_>
      <internalNodes>
        0 -1 148108 -1.6316439956426620e-02</internalNodes>
      <leafValues>
        7.8789120912551880e-01 -2.9796814918518066e-01</leafValues></_>
    <_>
      <internalNodes>
        0 -1 161074 6.9101701956242323e-04</internalNodes>
      <leafValues>
        -3.9942666888237000e-01 5.3936570882797241e-01</leafValues></_>
    <_>
      <internalNodes>
        0 -1 44343 -6.0352124273777008e-04</internalNodes>
      <leafValues>
        -6.2138235569000244e-01 4.1247606277465820e-01</leafValues></_>
    <_>
      <internalNodes>
        0 -1 105826 2.6250469963997602e-03</internalNodes>
      <leafValues>
        2.4589264392852783e-01 -7.8122878074645996e-01</leafValues></_></weakClassifiers></stage1>
</opencv_storage>
