<?xml version="1.0"?>
<opencv_storage>
<stage5>
  <maxWeakCount>7</maxWeakCount>
  <stageThreshold>-9.1880702972412109e-01</stageThreshold>
  <weakClassifiers>
    <_>
      <internalNodes>
        0 -1 5891 2.2678140550851822e-02</internalNodes>
      <leafValues>
        -4.6067416667938232e-01 6.9696968793869019e-01</leafValues></_>
    <_>
      <internalNodes>
        0 -1 151533 -1.7242708054254763e-05</internalNodes>
      <leafValues>
        2.5710394978523254e-01 -4.7525006532669067e-01</leafValues></_>
    <_>
      <internalNodes>
        0 -1 143322 -2.2362191230058670e-03</internalNodes>
      <leafValues>
        -7.2091817855834961e-01 1.3936649262905121e-01</leafValues></_>
    <_>
      <internalNodes>
        0 -1 161074 1.1785551905632019e-03</internalNodes>
      <leafValues>
        -3.1011617183685303e-01 4.1836187243461609e-01</leafValues></_>
    <_>
      <internalNodes>
        0 -1 119068 -1.4129371847957373e-03</internalNodes>
      <leafValues>
        -7.2670048475265503e-01 2.0547245442867279e-01</leafValues></_>
    <_>
      <internalNodes>
        0 -1 9207 -4.8021323978900909e-02</internalNodes>
      <leafValues>
        -5.8674210309982300e-01 2.0375792682170868e-01</leafValues></_>
    <_>
      <internalNodes>
        0 -1 80999 2.3657049983739853e-02</internalNodes>
      <leafValues>
        2.1213468909263611e-01 -5.8850735425949097e-01</leafValues></_></weakClassifiers></stage5>
</opencv_storage>
