<?xml version="1.0"?>
<opencv_storage>
<stage7>
  <maxWeakCount>12</maxWeakCount>
  <stageThreshold>-1.1859958171844482e+00</stageThreshold>
  <weakClassifiers>
    <_>
      <internalNodes>
        0 -1 67 1.0455768555402756e-02</internalNodes>
      <leafValues>
        -5.2263373136520386e-01 4.7368422150611877e-01</leafValues></_>
    <_>
      <internalNodes>
        0 -1 9477 -1.6356300562620163e-02</internalNodes>
      <leafValues>
        9.1653907299041748e-01 -1.9068130850791931e-01</leafValues></_>
    <_>
      <internalNodes>
        0 -1 60895 -2.4862315505743027e-02</internalNodes>
      <leafValues>
        -4.4677340984344482e-01 2.9987302422523499e-01</leafValues></_>
    <_>
      <internalNodes>
        0 -1 53593 4.2563397437334061e-03</internalNodes>
      <leafValues>
        1.5218801796436310e-01 -7.7202582359313965e-01</leafValues></_>
    <_>
      <internalNodes>
        0 -1 155301 5.6097381748259068e-03</internalNodes>
      <leafValues>
        -2.5073227286338806e-01 5.0088316202163696e-01</leafValues></_>
    <_>
      <internalNodes>
        0 -1 60801 -5.5233813822269440e-02</internalNodes>
      <leafValues>
        -6.1536270380020142e-01 2.4455371499061584e-01</leafValues></_>
    <_>
      <internalNodes>
        0 -1 54159 -2.7447450160980225e-01</internalNodes>
      <leafValues>
        8.8819378614425659e-01 -1.6728352010250092e-01</leafValues></_>
    <_>
      <internalNodes>
        0 -1 25732 1.9328355556353927e-03</internalNodes>
      <leafValues>
        -3.1880214810371399e-01 3.8508334755897522e-01</leafValues></_>
    <_>
      <internalNodes>
        0 -1 102791 -6.1607100069522858e-03</internalNodes>
      <leafValues>
        -5.8204841613769531e-01 2.0558431744575500e-01</leafValues></_>
    <_>
      <internalNodes>
        0 -1 159990 3.3336672931909561e-03</internalNodes>
      <leafValues>
        -2.2518205642700195e-01 5.9487712383270264e-01</leafValues></_>
    <_>
      <internalNodes>
        0 -1 72670 5.8105468750000000e-02</internalNodes>
      <leafValues>
        2.1130518615245819e-01 -5.7415235042572021e-01</leafValues></_>
    <_>
      <internalNodes>
        0 -1 69062 -3.4821026027202606e-02</internalNodes>
      <leafValues>
        -6.8360179662704468e-01 2.3076240718364716e-01</leafValues></_></weakClassifiers></stage7>
</opencv_storage>
