<?xml version="1.0"?>
<opencv_storage>
<cascade>
  <stageType>BOOST</stageType>
  <featureType>LBP</featureType>
  <height>24</height>
  <width>24</width>
  <stageParams>
    <boostType>GAB</boostType>
    <minHitRate>9.9500000476837158e-01</minHitRate>
    <maxFalseAlarm>5.0000000000000000e-01</maxFalseAlarm>
    <weightTrimRate>9.4999999999999996e-01</weightTrimRate>
    <maxDepth>1</maxDepth>
    <maxWeakCount>100</maxWeakCount></stageParams>
  <featureParams>
    <maxCatCount>256</maxCatCount>
    <featSize>1</featSize></featureParams>
  <stageNum>10</stageNum>
  <stages>
    <!-- stage 0 -->
    <_>
      <maxWeakCount>3</maxWeakCount>
      <stageThreshold>-1.0895354747772217e+00</stageThreshold>
      <weakClassifiers>
        <_>
          <internalNodes>
            0 -1 6 68263566 11620428 -1073135422 1912922368 -2130474789
            1086799872 -1031175793 -183961364</internalNodes>
          <leafValues>
            -8.8130563497543335e-01 3.6882129311561584e-01</leafValues></_>
        <_>
          <internalNodes>
            0 -1 8 -90455413 2852546 -1039839038 -2146893685 -913316593
            9044039 -762597362 -712390507</internalNodes>
          <leafValues>
            -6.7977786064147949e-01 6.6123920679092407e-01</leafValues></_>
        <_>
          <internalNodes>
            0 -1 2 26980 687868550 8424100 -564117376 235571387
            285212848 -930561624 -1547776123</internalNodes>
          <leafValues>
            -7.7857893705368042e-01 6.3889908790588379e-01</leafValues></_></weakClassifiers></_>
    <!-- stage 1 -->
    <_>
      <maxWeakCount>5</maxWeakCount>
      <stageThreshold>-7.9871594905853271e-01</stageThreshold>
      <weakClassifiers>
        <_>
          <internalNodes>
            0 -1 35 -575155453 -528334839 -1845476863 -201080448
            -452378607 738263040 -2122317759 -677134149</internalNodes>
          <leafValues>
            -7.6923078298568726e-01 4.7619047760963440e-01</leafValues></_>
        <_>
          <internalNodes>
            0 -1 36 -439694244 1073823745 -2113797628 -1860075518
            302022667 16 1073807360 -751841277</internalNodes>
          <leafValues>
            -6.5147918462753296e-01 6.2668401002883911e-01</leafValues></_>
        <_>
          <internalNodes>
            0 -1 11 -285806857 -360812801 -16842770 -290535427
            -143654945 2012446719 -524801 -1229791521</internalNodes>
          <leafValues>
            -6.1152917146682739e-01 6.9998240470886230e-01</leafValues></_>
        <_>
          <internalNodes>
            0 -1 3 -372260346 -2136520703 118786 1075102336 -2147309439
            1635782656 -905795455 -160999325</internalNodes>
          <leafValues>
            -6.6537213325500488e-01 6.7262035608291626e-01</leafValues></_>
        <_>
          <internalNodes>
            0 -1 33 -233373311 -2050932402 -1019182639 1095110656
            -1073176439 1241710613 -1971287924 -72302246</internalNodes>
          <leafValues>
            -6.5803754329681396e-01 6.8566125631332397e-01</leafValues></_></weakClassifiers></_>
    <!-- stage 2 -->
    <_>
      <maxWeakCount>5</maxWeakCount>
      <stageThreshold>-1.1214840412139893e+00</stageThreshold>
      <weakClassifiers>
        <_>
          <internalNodes>
            0 -1 30 -170408670 -184483565 -2121957374 1064535040
            1367433216 -805306344 -1064787896 -104875646</internalNodes>
          <leafValues>
            -7.7188330888748169e-01 4.0807175636291504e-01</leafValues></_>
        <_>
          <internalNodes>
            0 -1 25 -258421024 1359151617 -2130640895 -1281687551
            -2147417717 -2139029376 -771718614 189755395</internalNodes>
          <leafValues>
            -7.2572559118270874e-01 5.4504668712615967e-01</leafValues></_>
        <_>
          <internalNodes>
            0 -1 5 -913579262 -835911662 28674 739905540 1082147073
            1350909952 -1954310008 -175390705</internalNodes>
          <leafValues>
            -7.4528723955154419e-01 5.5170100927352905e-01</leafValues></_>
        <_>
          <internalNodes>
            0 -1 38 -471878613 1658233444 269074496 -402390814
            -2075721214 537493632 -209483758 -683429750</internalNodes>
          <leafValues>
            -6.5436875820159912e-01 6.5569472312927246e-01</leafValues></_>
        <_>
          <internalNodes>
            0 -1 13 -1841196982 -1726808060 16842768 1426128919
            -2147450680 -1962934264 268468361 -1304909816</internalNodes>
          <leafValues>
            -6.7494642734527588e-01 6.9962364435195923e-01</leafValues></_></weakClassifiers></_>
    <!-- stage 3 -->
    <_>
      <maxWeakCount>4</maxWeakCount>
      <stageThreshold>-1.6036739349365234e+00</stageThreshold>
      <weakClassifiers>
        <_>
          <internalNodes>
            0 -1 39 -375396817 -295513027 -2062061305 -498955880
            269186101 1366261952 1556816742 -1077362888</internalNodes>
          <leafValues>
            -8.1920903921127319e-01 3.6585366725921631e-01</leafValues></_>
        <_>
          <internalNodes>
            0 -1 14 761256135 243552551 -126336726 -1531131086
            1075608271 565800983 -359818947 -524223310</internalNodes>
          <leafValues>
            -8.1334280967712402e-01 5.0591951608657837e-01</leafValues></_>
        <_>
          <internalNodes>
            0 -1 15 804138687 -360714257 -25198593 -1359052822
            1065349117 2013265919 -1073741889 -659468</internalNodes>
          <leafValues>
            -6.4697879552841187e-01 7.3931437730789185e-01</leafValues></_>
        <_>
          <internalNodes>
            0 -1 21 -1574551219 1766460301 268468355 1116423441
            137896775 952191109 -114048609 -202505726</internalNodes>
          <leafValues>
            -7.4086821079254150e-01 6.7585670948028564e-01</leafValues></_></weakClassifiers></_>
    <!-- stage 4 -->
    <_>
      <maxWeakCount>5</maxWeakCount>
      <stageThreshold>-9.4790941476821899e-01</stageThreshold>
      <weakClassifiers>
        <_>
          <internalNodes>
            0 -1 35 -172548305 -1357490361 1166225678 2117692611
            2059340581 -1416249126 1252519936 -203101075</internalNodes>
          <leafValues>
            -7.8133332729339600e-01 4.1333332657814026e-01</leafValues></_>
        <_>
          <internalNodes>
            0 -1 10 -630833861 -2135568111 -1609391616 -1564327447
            1093517915 1652752547 -1399352525 -1305809921</internalNodes>
          <leafValues>
            -7.1161717176437378e-01 6.2975102663040161e-01</leafValues></_>
        <_>
          <internalNodes>
            0 -1 29 731316517 -1569263545 -1340632310 177361481
            -297709200 30273788 1248937059 -191842240</internalNodes>
          <leafValues>
            -7.9012578725814819e-01 5.6097412109375000e-01</leafValues></_>
        <_>
          <internalNodes>
            0 -1 27 34635527 47650351 -743059169 -358688623 103698843
            824361216 -1457240418 -21182380</internalNodes>
          <leafValues>
            -6.8234270811080933e-01 7.3048901557922363e-01</leafValues></_>
        <_>
          <internalNodes>
            0 -1 9 -1022565631 1080283401 -2138554368 403329344 16814779
            1167591555 -1962702163 -1624186462</internalNodes>
          <leafValues>
            -7.3433208465576172e-01 6.7614138126373291e-01</leafValues></_></weakClassifiers></_>
    <!-- stage 5 -->
    <_>
      <maxWeakCount>4</maxWeakCount>
      <stageThreshold>-4.0992057323455811e-01</stageThreshold>
      <weakClassifiers>
        <_>
          <internalNodes>
            0 -1 7 -996251153 -1001823997 872436061 -2131623926
            1913161887 -1920220126 -1324826089 -87060594</internalNodes>
          <leafValues>
            -7.0792078971862793e-01 4.3877550959587097e-01</leafValues></_>
        <_>
          <internalNodes>
            0 -1 20 -1856698993 -1358676729 -531623069 -357678564
            -216503525 -1863776022 -1400796473 -1109111088</internalNodes>
          <leafValues>
            -6.8314081430435181e-01 5.9198641777038574e-01</leafValues></_>
        <_>
          <internalNodes>
            0 -1 8 -1748549309 626823759 642322506 -2044767135
            -301817297 1166147618 -880698497 1475898031</internalNodes>
          <leafValues>
            -7.2872036695480347e-01 5.5235028266906738e-01</leafValues></_>
        <_>
          <internalNodes>
            0 -1 18 287639999 1719668817 419828109 626614751 1749915800
            1241876488 -1702509979 -1062950963</internalNodes>
          <leafValues>
            -7.1196210384368896e-01 5.9941422939300537e-01</leafValues></_></weakClassifiers></_>
    <!-- stage 6 -->
    <_>
      <maxWeakCount>4</maxWeakCount>
      <stageThreshold>-1.4457632303237915e+00</stageThreshold>
      <weakClassifiers>
        <_>
          <internalNodes>
            0 -1 31 -656593621 -1042444149 1346536492 2111410816
            -750231008 1635885248 -1576220352 -215493908</internalNodes>
          <leafValues>
            -8.0664652585983276e-01 2.4907062947750092e-01</leafValues></_>
        <_>
          <internalNodes>
            0 -1 22 2037459293 -2088218239 18159058 1179173007
            -494157234 -1030078321 -519853665 -932689480</internalNodes>
          <leafValues>
            -6.6224312782287598e-01 5.5165410041809082e-01</leafValues></_>
        <_>
          <internalNodes>
            0 -1 1 290718207 -1337588519 152076292 1620329612 939583723
            1353427129 -1459033205 -1155923828</internalNodes>
          <leafValues>
            -6.2121218442916870e-01 6.4062833786010742e-01</leafValues></_>
        <_>
          <internalNodes>
            0 -1 26 -1816011409 -469413500 -1794014193 -896202175
            319619622 -775256700 -113173754 -571529267</internalNodes>
          <leafValues>
            -6.1750191450119019e-01 6.8017745018005371e-01</leafValues></_></weakClassifiers></_>
    <!-- stage 7 -->
    <_>
      <maxWeakCount>4</maxWeakCount>
      <stageThreshold>-6.4683765172958374e-01</stageThreshold>
      <weakClassifiers>
        <_>
          <internalNodes>
            0 -1 24 -720265348 -486502383 1409372612 438571359
            1749157982 -1952446456 -1020548204 -1154971364</internalNodes>
          <leafValues>
            -8.2822084426879883e-01 2.5547444820404053e-01</leafValues></_>
        <_>
          <internalNodes>
            0 -1 28 1440299895 -1789476525 -1471033146 810173003
            1411348769 -921632255 -1475575791 -328623637</internalNodes>
          <leafValues>
            -6.4843457937240601e-01 5.7513546943664551e-01</leafValues></_>
        <_>
          <internalNodes>
            0 -1 12 1171860430 -1006272179 964776398 743964809
            1384207140 -1732968242 -1979093439 -284149603</internalNodes>
          <leafValues>
            -8.1604003906250000e-01 5.0612062215805054e-01</leafValues></_>
        <_>
          <internalNodes>
            0 -1 34 -1793625647 2048462993 268966986 -175538023
            -267347922 -233796911 -771516396 -255287140</internalNodes>
          <leafValues>
            -6.6140753030776978e-01 6.0163593292236328e-01</leafValues></_></weakClassifiers></_>
    <!-- stage 8 -->
    <_>
      <maxWeakCount>3</maxWeakCount>
      <stageThreshold>-6.3879859447479248e-01</stageThreshold>
      <weakClassifiers>
        <_>
          <internalNodes>
            0 -1 37 -16781557 1845493471 -1073754130 -269484050
            -1342261378 2144796671 -536879241 -225</internalNodes>
          <leafValues>
            -5.8196723461151123e-01 7.5000000000000000e-01</leafValues></_>
        <_>
          <internalNodes>
            0 -1 23 625216979 1934894681 1124090269 1461063972
            -2113884680 1311244432 -535709637 -1203720024</internalNodes>
          <leafValues>
            -6.2598347663879395e-01 5.7414251565933228e-01</leafValues></_>
        <_>
          <internalNodes>
            0 -1 17 -1256554369 -968719505 -2126478069 -392755832
            -1321627599 -649033072 -1152831894 -1073987432</internalNodes>
          <leafValues>
            -6.3097393512725830e-01 6.3337248563766479e-01</leafValues></_></weakClassifiers></_>
    <!-- stage 9 -->
    <_>
      <maxWeakCount>5</maxWeakCount>
      <stageThreshold>-1.0764859914779663e+00</stageThreshold>
      <weakClassifiers>
        <_>
          <internalNodes>
            0 -1 0 -527179610 100706946 1090822152 -796704512 520203
            289439752 -1069449216 -254805361</internalNodes>
          <leafValues>
            -6.6906476020812988e-01 4.3169400095939636e-01</leafValues></_>
        <_>
          <internalNodes>
            0 -1 16 -732888727 -1705754478 -650090020 1152684251
            711279569 -1465904472 1259096320 -616789844</internalNodes>
          <leafValues>
            -7.4286109209060669e-01 4.4856548309326172e-01</leafValues></_>
        <_>
          <internalNodes>
            0 -1 19 352721321 1414628738 -1795094199 -678608616
            -1186881398 -390036858 612993259 1459766171</internalNodes>
          <leafValues>
            -6.3427549600601196e-01 5.6448805332183838e-01</leafValues></_>
        <_>
          <internalNodes>
            0 -1 32 827513828 -585267071 218106120 -415952830 42009516
            101720128 318767370 -680820582</internalNodes>
          <leafValues>
            -6.5488201379776001e-01 5.7983016967773438e-01</leafValues></_>
        <_>
          <internalNodes>
            0 -1 4 1346874402 34652232 536936452 1208262657 541779983
            1610646016 -2147475192 792975627</internalNodes>
          <leafValues>
            -7.8798174858093262e-01 5.2383863925933838e-01</leafValues></_></weakClassifiers></_></stages>
  <features>
    <_>
      <rect>
        0 0 1 5</rect></_>
    <_>
      <rect>
        0 0 2 1</rect></_>
    <_>
      <rect>
        0 0 7 1</rect></_>
    <_>
      <rect>
        0 7 1 2</rect></_>
    <_>
      <rect>
        0 11 1 2</rect></_>
    <_>
      <rect>
        0 13 1 1</rect></_>
    <_>
      <rect>
        0 15 6 2</rect></_>
    <_>
      <rect>
        1 3 3 2</rect></_>
    <_>
      <rect>
        1 7 1 1</rect></_>
    <_>
      <rect>
        1 8 5 3</rect></_>
    <_>
      <rect>
        1 12 1 1</rect></_>
    <_>
      <rect>
        2 12 1 1</rect></_>
    <_>
      <rect>
        2 12 3 2</rect></_>
    <_>
      <rect>
        2 14 6 3</rect></_>
    <_>
      <rect>
        2 17 1 1</rect></_>
    <_>
      <rect>
        2 21 2 1</rect></_>
    <_>
      <rect>
        4 8 6 5</rect></_>
    <_>
      <rect>
        5 6 6 5</rect></_>
    <_>
      <rect>
        5 18 1 1</rect></_>
    <_>
      <rect>
        6 0 3 3</rect></_>
    <_>
      <rect>
        6 20 2 1</rect></_>
    <_>
      <rect>
        8 5 2 3</rect></_>
    <_>
      <rect>
        9 15 3 2</rect></_>
    <_>
      <rect>
        9 15 4 3</rect></_>
    <_>
      <rect>
        9 18 5 2</rect></_>
    <_>
      <rect>
        12 0 3 6</rect></_>
    <_>
      <rect>
        12 9 4 2</rect></_>
    <_>
      <rect>
        13 2 1 1</rect></_>
    <_>
      <rect>
        15 11 2 2</rect></_>
    <_>
      <rect>
        15 16 1 1</rect></_>
    <_>
      <rect>
        16 14 2 2</rect></_>
    <_>
      <rect>
        17 13 2 2</rect></_>
    <_>
      <rect>
        18 9 2 2</rect></_>
    <_>
      <rect>
        18 19 1 1</rect></_>
    <_>
      <rect>
        18 20 2 1</rect></_>
    <_>
      <rect>
        19 16 1 1</rect></_>
    <_>
      <rect>
        21 4 1 4</rect></_>
    <_>
      <rect>
        21 11 1 3</rect></_>
    <_>
      <rect>
        21 16 1 1</rect></_>
    <_>
      <rect>
        21 17 1 1</rect></_></features></cascade>
</opencv_storage>
